FFT,Power Spectrum
Frequency[Hz],Level-L[dB],Level-R[dB]
11.719,-4.2595,-62.053
23.438,15.712,-53.553
35.156,11.592,-40.313
46.875,17.315,-28.453
58.594,18.583,-26.442
70.313,20.976,-27.684
82.031,24.326,-25.751
93.75,20.609,-28.373
105.47,17.726,-22.46
117.19,16.482,-20.735
128.91,17.99,-20.078
140.63,21.37,-15.147
152.34,20.113,-14.312
164.06,16.116,-15.113
175.78,13.025,-16.248
187.5,20.692,-16.844
199.22,21.389,-18.11
210.94,17.693,-20.133
222.66,15.255,-14.222
234.38,16.886,-13.469
246.09,14.863,-15.352
257.81,17.617,-14.391
269.53,18.054,-13.877
281.25,16.828,-14.292
292.97,15.809,-17.236
304.69,15.64,-16.121
316.41,16.33,-17.994
328.13,17.338,-15.679
339.84,19.614,-14.688
351.56,16.085,-13.871
363.28,12.533,-14.516
375,14.823,-16.463
386.72,16.358,-16.088
398.44,17.514,-15.851
410.16,15.984,-10.52
421.88,14.612,-14.01
433.59,15.989,-12.668
445.31,17.88,-9.2395
457.03,18.427,-10.045
468.75,17.475,-11.149
480.47,17.621,-11.192
492.19,16.582,-11.368
503.91,14.778,-11.731
515.63,14.065,-10.153
527.34,13.316,-12.262
539.06,12.019,-11.496
550.78,16.271,-8.8904
562.5,14.87,-9.13
574.22,18.663,-11.145
585.94,18.72,-9.23
597.66,17.552,-8.4121
609.38,18.602,-8.8278
621.09,20.075,-6.7962
632.81,19.097,-9.4174
644.53,16.85,-10.132
656.25,14.217,-9.1207
667.97,15.855,-6.949
679.69,18.872,-8.9029
691.41,17.671,-10.273
703.13,16.821,-10.306
714.84,16.447,-9.7778
726.56,16.454,-9.7362
738.28,13.896,-9.1249
750,12.399,-8.4511
761.72,14.851,-6.8149
773.44,17.127,-7.9219
785.16,17.834,-9.0757
796.88,18.268,-9.4532
808.59,17.13,-12.111
820.31,16.74,-10.233
832.03,17.054,-6.2964
843.75,17.148,-5.2134
855.47,16.194,-7.8082
867.19,16.635,-11.666
878.91,17.723,-10.845
890.63,15.508,-10.96
902.34,12.323,-9.2992
914.06,13.998,-7.2263
925.78,16.659,-7.6116
937.5,15.164,-11.071
949.22,13.577,-12.549
960.94,12.871,-11.615
972.66,13.805,-9.2654
984.38,15.872,-8.4671
996.09,15.371,-8.2068
1007.8,14.351,-7.1536
1019.5,11.718,-7.1118
1031.3,14.74,-7.3952
1043,17.121,-4.9608
1054.7,13.648,-8.0427
1066.4,16.038,-12.229
1078.1,16.832,-8.5122
1089.8,11.082,-7.0042
1101.6,15.805,-7.6976
1113.3,16.474,-8.1135
1125,16.141,-7.9407
1136.7,13.959,-9.1438
1148.4,12.399,-9.7505
1160.2,15.265,-9.5135
1171.9,17.179,-11.067
1183.6,13.232,-7.1319
1195.3,14.446,-4.3558
1207,14.78,-4.3638
1218.8,11.978,-8.5419
1230.5,9.2125,-10.829
1242.2,13.019,-8.7351
1253.9,14.064,-8.7353
1265.6,12.429,-11.86
1277.3,12.401,-9.9828
1289.1,15.308,-10.348
1300.8,15.492,-11.695
1312.5,13.661,-9.6241
1324.2,13.822,-7.4878
1335.9,13.825,-8.2818
1347.7,13.059,-8.9554
1359.4,15.235,-6.7386
1371.1,13.512,-8.7185
1382.8,15.468,-7.6368
1394.5,16.103,-7.5115
1406.3,14.268,-6.6955
1418,13.078,-5.967
1429.7,15.096,-8.209
1441.4,17.567,-6.3026
1453.1,16.106,-5.9638
1464.8,18.505,-6.9018
1476.6,15.558,-5.7662
1488.3,14.323,-4.1269
1500,15.231,-6.8505
1511.7,15.934,-9.3354
1523.4,16.109,-6.7617
1535.2,16.809,-7.8959
1546.9,18.411,-8.5403
1558.6,15.021,-9.5528
1570.3,11.209,-9.1231
1582,10.458,-9.9248
1593.8,14.333,-9.6813
1605.5,12.772,-9.1435
1617.2,12.988,-10.014
1628.9,16.334,-7.5507
1640.6,16.382,-8.5131
1652.3,13.091,-5.7682
1664.1,11.154,-7.9097
1675.8,13.638,-10.975
1687.5,15.927,-8.386
1699.2,15.38,-9.241
1710.9,14.68,-6.8911
1722.7,13.432,-8.2173
1734.4,11.794,-7.4713
1746.1,15.059,-5.8695
1757.8,16.428,-7.4751
1769.5,11.383,-7.3152
1781.3,11.286,-6.9021
1793,15.937,-8.9492
1804.7,16.589,-8.8443
1816.4,17.464,-4.104
1828.1,18.658,-3.0656
1839.8,14.098,-4.6823
1851.6,13.135,-6.2875
1863.3,14.594,-6.6742
1875,14.666,-5.9964
1886.7,16.289,-7.8507
1898.4,16.11,-6.3086
1910.2,19.269,-6.5502
1921.9,18.46,-8.3011
1933.6,14.631,-6.7382
1945.3,12.939,-5.5626
1957,12.16,-5.652
1968.8,14.544,-8.2637
1980.5,12.977,-8.6303
1992.2,10.619,-8.0009
2003.9,11.87,-9.463
2015.6,11.439,-5.6196
2027.3,11.756,-4.7789
2039.1,13.063,-4.762
2050.8,14.13,-7.4044
2062.5,11.892,-8.6008
2074.2,10.967,-8.6242
2085.9,13.202,-7.4848
2097.7,17.256,-8.3179
2109.4,16.037,-6.5231
2121.1,11.056,-6.1954
2132.8,12.466,-5.6479
2144.5,16.145,-8.9426
2156.3,13.018,-7.6297
2168,11.422,-5.6007
2179.7,12.668,-9.8409
2191.4,14.299,-9.2336
2203.1,14.169,-9.0947
2214.8,11.159,-8.1423
2226.6,10.462,-9.0118
2238.3,14.046,-6.9003
2250,14.505,-6.7487
2261.7,12.81,-7.3036
2273.4,14.958,-10.326
2285.2,13.765,-8.7173
2296.9,14.6,-9.0936
2308.6,13.809,-9.0348
2320.3,11.266,-6.6101
2332,9.458,-5.3401
2343.8,10.239,-7.0817
2355.5,12.049,-7.5391
2367.2,11.093,-10.084
2378.9,12.736,-11.005
2390.6,16.655,-9.5829
2402.3,17.473,-6.7734
2414.1,16.519,-8.6075
2425.8,15.13,-6.6302
2437.5,14.953,-6.1772
2449.2,12.953,-7.4788
2460.9,13.862,-10.703
2472.7,13.584,-6.5162
2484.4,12.798,-5.7308
2496.1,10.465,-2.314
2507.8,13.402,-1.4512
2519.5,14.58,-4.3899
2531.3,11.147,-9.2289
2543,11.187,-7.055
2554.7,14.545,-5.7023
2566.4,11.576,-8.2737
2578.1,10.973,-6.7427
2589.8,11.136,-9.0584
2601.6,9.2908,-5.3952
2613.3,11.534,-5.0222
2625,11.327,-6.4132
2636.7,10.81,-7.8198
2648.4,10.226,-8.4961
2660.2,11.49,-8.7759
2671.9,15.345,-11.488
2683.6,16.465,-7.6276
2695.3,13.221,-6.9794
2707,10.912,-8.0876
2718.8,12.591,-9.1785
2730.5,10.375,-12.191
2742.2,9.8074,-8.5868
2753.9,10.018,-5.9143
2765.6,11.29,-7.0783
2777.3,11.606,-10.293
2789.1,10.746,-9.0339
2800.8,10.604,-7.7278
2812.5,11.325,-10.361
2824.2,12.165,-9.9008
2835.9,9.912,-7.0228
2847.7,10.334,-6.8334
2859.4,10.621,-7.6025
2871.1,8.7992,-7.6856
2882.8,12.608,-7.0735
2894.5,13.37,-6.5999
2906.3,12.907,-7.953
2918,11.4,-7.7731
2929.7,9.3319,-6.3595
2941.4,9.2331,-5.4798
2953.1,11.911,-5.8089
2964.8,14.322,-6.9596
2976.6,11.82,-7.0003
2988.3,7.4493,-5.6602
3000,9.9025,-5.2431
3011.7,10.662,-6.6689
3023.4,12.517,-8.5411
3035.2,13.694,-4.8865
3046.9,11.374,-5.6033
3058.6,9.2294,-8.4633
3070.3,11.529,-6.1453
3082,10.966,-4.8291
3093.8,11.498,-6.8243
3105.5,12.141,-11.549
3117.2,13.804,-10.44
3128.9,13.995,-7.976
3140.6,11.403,-8.1282
3152.3,11.238,-8.43
3164.1,12.333,-9.8458
3175.8,11.29,-7.4217
3187.5,11.719,-6.681
3199.2,13.372,-6.4472
3210.9,11.8,-6.471
3222.7,9.6798,-8.8085
3234.4,6.9951,-7.868
3246.1,7.7413,-5.365
3257.8,10.382,-4.7092
3269.5,8.9527,-7.3259
3281.3,10.449,-8.5191
3293,11.93,-9.7404
3304.7,12.72,-7.938
3316.4,10.384,-8.0453
3328.1,10.91,-4.5671
3339.8,11.099,-7.5336
3351.6,9.6598,-12.418
3363.3,7.1823,-9.055
3375,10.343,-9.2047
3386.7,8.9941,-9.2306
3398.4,8.3012,-9.6179
3410.2,9.5908,-6.5594
3421.9,8.6961,-7.1824
3433.6,11.164,-8.5623
3445.3,12.362,-9.4094
3457,10.317,-7.445
3468.8,9.8638,-6.7283
3480.5,11.17,-6.618
3492.2,10.576,-6.5837
3503.9,9.9816,-7.1902
3515.6,11.446,-7.4274
3527.3,12.415,-8.367
3539.1,11.662,-8.579
3550.8,10.688,-6.5929
3562.5,11.054,-7.2024
3574.2,9.1439,-7.6465
3585.9,11.239,-6.0096
3597.7,11.243,-4.5529
3609.4,8.4736,-5.9911
3621.1,11.459,-8.1498
3632.8,11.522,-5.8626
3644.5,10.385,-5.9352
3656.3,11.954,-6.7543
3668,12.255,-10.473
3679.7,12.208,-10.152
3691.4,10.149,-8.5843
3703.1,10.093,-6.835
3714.8,8.8336,-8.2391
3726.6,7.5775,-9.8374
3738.3,8.712,-7.6094
3750,6.1199,-5.9965
3761.7,7.6312,-5.2998
3773.4,9.5992,-6.4248
3785.2,8.1413,-11.262
3796.9,6.1588,-6.9992
3808.6,6.4641,-4.3836
3820.3,5.8058,-7.3589
3832,9.308,-3.861
3843.8,10.724,-5.4614
3855.5,8.9508,-7.5086
3867.2,10.649,-10.657
3878.9,9.2541,-9.2195
3890.6,9.0131,-8.7856
3902.3,7.9872,-8.7802
3914.1,9.2225,-5.84
3925.8,10.38,-5.9481
3937.5,13.184,-6.8811
3949.2,11.449,-10.029
3960.9,8.2113,-8.4003
3972.7,8.013,-5.6811
3984.4,10.657,-4.4557
3996.1,10.101,-4.4362
4007.8,6.847,-6.023
4019.5,11.201,-6.4413
4031.3,11.966,-6.8309
4043,10.253,-10.159
4054.7,11.838,-6.6879
4066.4,10.441,-6.9256
4078.1,8.6403,-6.2887
4089.8,6.7386,-4.888
4101.6,8.6889,-4.664
4113.3,10.661,-7.8066
4125,6.5811,-8.5924
4136.7,8.3007,-7.0326
4148.4,8.6056,-9.4476
4160.2,7.2967,-8.7342
4171.9,8.9136,-7.1602
4183.6,10.172,-8.8991
4195.3,9.8563,-10.401
4207,7.6163,-9.4359
4218.8,8.6457,-7.9462
4230.5,8.2935,-7.113
4242.2,6.0722,-5.0263
4253.9,6.7787,-6.5164
4265.6,8.2116,-6.3588
4277.3,8.3455,-5.2121
4289.1,5.7147,-6.2959
4300.8,7.6605,-6.5041
4312.5,5.8601,-9.8034
4324.2,8.366,-8.4215
4335.9,8.0803,-8.1017
4347.7,7.9473,-8.0528
4359.4,7.3164,-7.4857
4371.1,10.937,-8.1515
4382.8,10.07,-6.6461
4394.5,5.6936,-3.7488
4406.3,8.7167,-6.2669
4418,10.215,-9.7522
4429.7,9.2097,-7.1287
4441.4,8.1776,-7.8973
4453.1,9.6679,-6.9001
4464.8,10.73,-5.762
4476.6,8.0722,-10.107
4488.3,7.4469,-11.168
4500,8.7433,-9.8858
4511.7,7.9453,-11.744
4523.4,9.0775,-8.4712
4535.2,8.3184,-5.46
4546.9,8.2516,-7.8606
4558.6,8.2344,-10.311
4570.3,9.7863,-8.0345
4582,9.1967,-8.2052
4593.8,5.6414,-7.7502
4605.5,9.6126,-5.2214
4617.2,7.5646,-4.6072
4628.9,10.487,-5.1258
4640.6,11.15,-7.996
4652.3,8.3672,-10.257
4664.1,7.3823,-5.9475
4675.8,9.6336,-6.6681
4687.5,5.7254,-11.836
4699.2,6.1849,-7.0785
4710.9,8.3879,-6.64
4722.7,8.0251,-8.7998
4734.4,7.513,-5.8953
4746.1,6.4081,-7.198
4757.8,6.9849,-6.3272
4769.5,6.3554,-7.829
4781.3,6.8294,-7.8898
4793,8.3011,-8.0849
4804.7,8.3086,-7.9519
4816.4,9.334,-6.3927
4828.1,7.168,-8.7842
4839.8,7.0865,-11.431
4851.6,7.8853,-8.8888
4863.3,7.0132,-8.0875
4875,5.9499,-9.897
4886.7,7.1045,-10.765
4898.4,9.0832,-11.06
4910.2,5.7985,-8.8542
4921.9,6.2588,-6.6299
4933.6,7.8099,-10.232
4945.3,6.3916,-9.0855
4957,7.764,-9.4037
4968.8,4.225,-7.0966
4980.5,3.2265,-8.9099
4992.2,7.0287,-6.434
5003.9,9.0459,-7.6916
5015.6,7.4668,-9.937
5027.3,7.0177,-8.6722
5039.1,8.5563,-10.685
5050.8,7.8303,-9.8362
5062.5,8.15,-7.6187
5074.2,5.507,-7.9311
5085.9,6.0893,-9.9144
5097.7,4.1462,-7.6836
5109.4,7.6486,-5.8123
5121.1,7.7271,-7.2224
5132.8,4.4294,-8.9552
5144.5,7.1323,-5.7296
5156.3,7.0242,-6.6502
5168,5.6652,-11.076
5179.7,6.2657,-9.4883
5191.4,5.2113,-9.8676
5203.1,8.0041,-8.7674
5214.8,6.6715,-10.407
5226.6,3.5006,-10.099
5238.3,6.9028,-8.9881
5250,9.5764,-9.4939
5261.7,6.8982,-11.155
5273.4,6.1337,-8.7927
5285.2,5.5481,-7.1241
5296.9,4.1852,-6.9843
5308.6,6.1112,-6.2342
5320.3,5.4484,-6.0935
5332,5.7431,-8.4335
5343.8,6.5538,-9.7286
5355.5,8.7443,-9.0729
5367.2,6.8612,-9.7466
5378.9,3.9827,-5.8614
5390.6,5.1543,-7.5343
5402.3,3.3959,-7.0389
5414.1,6.5492,-7.1971
5425.8,7.4017,-8.9237
5437.5,3.8047,-8.5384
5449.2,5.747,-9.501
5460.9,4.8619,-8.8711
5472.7,1.5354,-8.4186
5484.4,4.5905,-10.181
5496.1,6.293,-11.645
5507.8,5.3415,-7.7389
5519.5,5.4218,-5.2469
5531.3,6.0948,-5.5746
5543,7.8369,-4.7566
5554.7,8.8895,-6.1462
5566.4,7.0893,-6.1677
5578.1,6.2771,-8.5764
5589.8,4.9756,-13.206
5601.6,3.5342,-12.522
5613.3,3.8793,-7.816
5625,5.1416,-6.0748
5636.7,4.6169,-6.3884
5648.4,4.3856,-7.3845
5660.2,9.3571,-10.416
5671.9,8.8611,-9.7766
5683.6,3.0088,-10.454
5695.3,1.9705,-9.7815
5707,6.6648,-6.5644
5718.8,8.1265,-7.0134
5730.5,5.8188,-7.6166
5742.2,8.2653,-9.7335
5753.9,8.6792,-9.3144
5765.6,5.451,-5.8766
5777.3,-0.66187,-8.689
5789.1,2.0989,-11.375
5800.8,2.8701,-12.862
5812.5,2.2524,-9.8425
5824.2,5.7595,-9.8215
5835.9,8.3221,-8.6369
5847.7,7.645,-10.17
5859.4,9.8694,-10.508
5871.1,10.176,-7.7623
5882.8,6.2995,-8.5059
5894.5,2.1773,-9.9999
5906.3,2.8708,-11.524
5918,6.6016,-6.4054
5929.7,7.5679,-6.3891
5941.4,7.2195,-6.4056
5953.1,4.9847,-6.0255
5964.8,4.8411,-6.571
5976.6,5.0533,-4.4659
5988.3,7.0314,-6.4918
6000,4.8667,-10.933
6011.7,4.4458,-7.1381
6023.4,3.6983,-9.7396
6035.2,3.9127,-11.193
6046.9,2.7571,-8.6835
6058.6,4.3589,-8.7418
6070.3,3.4031,-10.471
6082,3.6366,-9.1893
6093.8,5.2511,-7.1323
6105.5,5.5034,-6.3594
6117.2,5.9436,-7.1683
6128.9,4.5841,-10.239
6140.6,5.6021,-9.0937
6152.3,5.0435,-9.3567
6164.1,5.8028,-10.457
6175.8,3.7172,-11.249
6187.5,2.5093,-8.2745
6199.2,5.9939,-10.101
6210.9,5.9555,-9.8808
6222.7,1.6248,-11.031
6234.4,2.2641,-8.9373
6246.1,3.7103,-7.0142
6257.8,5.294,-6.8754
6269.5,4.7867,-8.6479
6281.3,6.901,-8.6647
6293,7.9297,-8.9712
6304.7,6.8582,-8.5421
6316.4,5.7455,-8.4161
6328.1,7.9598,-9.2709
6339.8,6.4395,-8.8882
6351.6,1.9226,-10.574
6363.3,3.4408,-13.614
6375,4.6399,-9.77
6386.7,7.0762,-7.714
6398.4,6.7318,-11.269
6410.2,6.5129,-9.8933
6421.9,4.5958,-8.9453
6433.6,6.0998,-8.4761
6445.3,8.1918,-8.8459
6457,6.8249,-9.1011
6468.8,3.1637,-8.9544
6480.5,0.49265,-5.9753
6492.2,2.3025,-6.5505
6503.9,3.3129,-10.023
6515.6,3.0244,-9.2677
6527.3,2.8615,-11.22
6539.1,1.2533,-10.37
6550.8,1.8096,-7.037
6562.5,2.9963,-5.1522
6574.2,5.584,-7.8372
6585.9,5.3886,-10.036
6597.7,3.1546,-7.7405
6609.4,3.5945,-8.6742
6621.1,3.6374,-9.6166
6632.8,4.3981,-8.8064
6644.5,6.2918,-10.793
6656.3,6.4844,-7.9342
6668,2.9269,-7.34
6679.7,0.93703,-10.085
6691.4,4.2163,-9.4188
6703.1,3.728,-5.9084
6714.8,6.3049,-8.3874
6726.6,4.4528,-11.926
6738.3,2.9289,-10.242
6750,0.79156,-11.289
6761.7,0.71219,-11.547
6773.4,0.57534,-7.6426
6785.2,2.0421,-8.0738
6796.9,-1.0433,-7.8786
6808.6,1.8133,-7.8428
6820.3,2.5812,-7.4015
6832,1.5094,-6.537
6843.8,1.077,-7.0676
6855.5,4.5174,-8.1741
6867.2,6.8895,-10.49
6878.9,7.0642,-8.189
6890.6,5.7116,-8.0741
6902.3,3.5946,-6.1314
6914.1,4.8517,-5.0626
6925.8,5.3281,-8.3685
6937.5,3.2903,-11.077
6949.2,5.5403,-8.796
6960.9,4.4707,-11.103
6972.7,2.1219,-10.643
6984.4,0.71446,-9.6412
6996.1,4.2463,-7.7757
7007.8,4.6243,-5.4676
7019.5,2.159,-5.1869
7031.3,1.5117,-7.9193
7043,4.2728,-9.4108
7054.7,5.5351,-12.52
7066.4,5.4751,-11.36
7078.1,2.2454,-12.343
7089.8,-0.017263,-14.426
7101.6,-0.071458,-14.395
7113.3,0.6727,-10.859
7125,1.0284,-9.2427
7136.7,2.2999,-7.43
7148.4,1.604,-8.4783
7160.2,3.1962,-9.1901
7171.9,3.253,-9.8162
7183.6,0.56906,-11.587
7195.3,3.4787,-10.217
7207,2.6797,-8.1719
7218.8,0.32735,-9.3479
7230.5,2.3771,-9.8322
7242.2,2.96,-13.053
7253.9,0.27412,-13.174
7265.6,1.642,-10.352
7277.3,3.6413,-9.1955
7289.1,5.5048,-11.046
7300.8,3.6867,-10.735
7312.5,4.575,-10.384
7324.2,3.917,-12.477
7335.9,4.1412,-12.644
7347.7,1.0232,-9.753
7359.4,1.8418,-6.4302
7371.1,4.0886,-6.3973
7382.8,6.0371,-5.3788
7394.5,5.5157,-8.8493
7406.3,5.1087,-10.2
7418,3.2954,-8.8094
7429.7,2.3909,-10.924
7441.4,0.59244,-11.227
7453.1,1.7965,-10.448
7464.8,5.3448,-7.4598
7476.6,5.7066,-12.9
7488.3,-1.4639,-12.109
7500,2.8682,-12.651
7511.7,4.5872,-9.1989
7523.4,3.8962,-12.325
7535.2,2.849,-9.8335
7546.9,2.4106,-9.4824
7558.6,0.91763,-15.135
7570.3,2.7148,-11.128
7582,3.8069,-10.177
7593.8,1.8648,-10.872
7605.5,0.87208,-12.806
7617.2,1.7123,-11.276
7628.9,2.4401,-9.9781
7640.6,3.0854,-11.096
7652.3,2.7139,-11.344
7664.1,2.1463,-11.877
7675.8,0.79645,-7.5157
7687.5,0.87884,-6.5418
7699.2,1.2226,-8.5133
7710.9,2.0043,-6.8858
7722.7,0.36962,-6.7656
7734.4,0.67381,-9.2744
7746.1,6.319,-10.557
7757.8,4.5651,-8.6824
7769.5,-0.42637,-7.4933
7781.3,1.9044,-10.184
7793,2.9776,-12.242
7804.7,0.89849,-11.778
7816.4,1.6105,-10.856
7828.1,1.5552,-9.8272
7839.8,-0.12974,-9.1809
7851.6,-1.2481,-12.975
7863.3,-0.57212,-10.33
7875,0.21742,-9.6593
7886.7,-0.26946,-7.9406
7898.4,-2.9041,-9.1493
7910.2,-0.18681,-9.4416
7921.9,1.5485,-11.317
7933.6,2.0603,-8.1435
7945.3,-0.87135,-6.7634
7957,-0.74548,-8.1818
7968.8,1.8538,-9.7858
7980.5,0.9816,-8.3167
7992.2,3.1545,-8.8032
8003.9,3.0817,-12.241
8015.6,1.3357,-9.443
8027.3,-0.38142,-9.8003
8039.1,4.0384,-10.95
8050.8,3.9395,-11.401
8062.5,-1.075,-8.6447
8074.2,-0.72218,-9.6021
8085.9,3.0988,-11.221
8097.7,0.9173,-8.8121
8109.4,1.4752,-12.303
8121.1,1.793,-12.238
8132.8,2.4394,-12.59
8144.5,0.45514,-10.34
8156.3,-0.13174,-8.8277
8168,0.80225,-9.5673
8179.7,2.7096,-8.1555
8191.4,1.0061,-7.3151
8203.1,0.11833,-9.0576
8214.8,0.67999,-11.716
8226.6,1.5324,-11.14
8238.3,-1.6695,-9.6616
8250,-0.82413,-9.6541
8261.7,2.1515,-10.717
8273.4,-0.52651,-10.51
8285.2,1.0278,-11.627
8296.9,0.21678,-13.985
8308.6,0.96226,-11.905
8320.3,0.75533,-11.151
8332,1.2527,-9.9298
8343.8,2.0063,-9.1733
8355.5,2.5959,-8.1554
8367.2,3.8701,-9.0411
8378.9,3.7657,-9.1621
8390.6,2.2511,-9.1502
8402.3,2.2199,-10.769
8414.1,2.6159,-12.778
8425.8,3.0778,-10.292
8437.5,0.26322,-10.363
8449.2,2.3956,-8.179
8460.9,2.4115,-8.117
8472.7,2.3166,-10.209
8484.4,0.68052,-12.828
8496.1,1.0098,-10.784
8507.8,1.6143,-12.047
8519.5,0.90459,-10.804
8531.3,-1.7423,-12.376
8543,0.83144,-12.35
8554.7,0.73026,-11.549
8566.4,1.6697,-12.417
8578.1,2.7925,-12.655
8589.8,2.789,-10.878
8601.6,0.69871,-9.9015
8613.3,0.38556,-11.59
8625,0.9565,-12.219
8636.7,0.22036,-11.55
8648.4,-1.235,-10.127
8660.2,1.2813,-11.143
8671.9,2.2792,-11.237
8683.6,0.57985,-10.122
8695.3,0.55779,-10.444
8707,1.758,-8.6448
8718.8,2.5748,-9.5551
8730.5,2.4599,-9.2138
8742.2,2.7429,-9.5112
8753.9,4.2599,-10.93
8765.6,1.902,-13.586
8777.3,0.060425,-9.5134
8789.1,1.3176,-10.878
8800.8,2.7102,-10.832
8812.5,1.8505,-9.499
8824.2,1.508,-9.725
8835.9,2.6207,-7.2971
8847.7,-0.85986,-7.907
8859.4,-2.0946,-10.378
8871.1,-1.6775,-10.873
8882.8,-0.027818,-11.063
8894.5,-0.016737,-10.457
8906.3,-0.50667,-11.838
8918,-2.4674,-12.057
8929.7,-1.7164,-10.832
8941.4,-1.65,-13.274
8953.1,-2.1194,-10.097
8964.8,-0.52022,-10.266
8976.6,-0.12806,-10.99
8988.3,1.3094,-12.742
9000,-2.1556,-12.033
9011.7,-2.5874,-9.6729
9023.4,3.5823,-11.275
9035.2,4.1788,-11.554
9046.9,-1.0535,-10.668
9058.6,-0.34018,-11.263
9070.3,3.7225,-10.379
9082,3.3477,-9.6972
9093.8,1.775,-9.581
9105.5,1.5673,-11.608
9117.2,0.48942,-10.969
9128.9,-0.56793,-8.4267
9140.6,1.1792,-10.485
9152.3,4.4942,-12.076
9164.1,3.9031,-9.8156
9175.8,1.8741,-8.7512
9187.5,1.1682,-8.5248
9199.2,-3.932,-10.066
9210.9,-1.0498,-9.4145
9222.7,-1.1903,-7.6901
9234.4,-0.279,-5.4719
9246.1,0.89131,-5.8757
9257.8,0.59792,-7.3531
9269.5,1.5315,-7.1938
9281.3,0.87335,-7.4972
9293,1.1006,-11.228
9304.7,-0.094904,-13.885
9316.4,-3.2972,-11.973
9328.1,-2.9964,-10.778
9339.8,-1.8315,-8.1816
9351.6,-0.99485,-10.602
9363.3,0.77328,-11.585
9375,1.684,-8.8795
9386.7,-0.70094,-8.4915
9398.4,0.90095,-8.3379
9410.2,0.42782,-10.479
9421.9,-3.3829,-9.9781
9433.6,-4.8316,-7.9479
9445.3,-0.80588,-8.7276
9457,0.91139,-10.194
9468.8,1.6082,-10.397
9480.5,-0.78272,-9.5131
9492.2,-5.9557,-9.2827
9503.9,-0.45639,-10.568
9515.6,-1.6519,-12.46
9527.3,2.0433,-11.287
9539.1,3.3619,-11.188
9550.8,1.4926,-14.018
9562.5,3.0197,-12.689
9574.2,4.1979,-9.4181
9585.9,3.7486,-8.723
9597.7,0.82066,-10.334
9609.4,-1.8598,-13.101
9621.1,-0.054632,-11.623
9632.8,-0.71234,-11.666
9644.5,2.4817,-10.48
9656.3,0.79447,-10.64
9668,0.041658,-12.382
9679.7,0.61821,-15.879
9691.4,-0.28205,-10.149
9703.1,0.67578,-7.8988
9714.8,0.53285,-9.9588
9726.6,-0.56566,-10.244
9738.3,-0.22815,-12.187
9750,-1.0911,-13.854
9761.7,1.8382,-12.204
9773.4,4.2561,-13.188
9785.2,1.2609,-12.442
9796.9,-0.16311,-14.407
9808.6,-0.80614,-13.485
9820.3,0.93692,-12.79
9832,2.5944,-13.147
9843.8,2.9115,-11.528
9855.5,2.7093,-10.516
9867.2,1.9329,-11.11
9878.9,0.24192,-9.1713
9890.6,0.80598,-10.68
9902.3,3.5732,-12.76
9914.1,0.84118,-10.458
9925.8,-3.4926,-9.9593
9937.5,-4.0221,-11.146
9949.2,-1.1472,-12.389
9960.9,0.68481,-12.951
9972.7,-0.14382,-14.697
9984.4,-2.1722,-12.553
9996.1,-0.44435,-8.6494
10008,-0.74776,-9.5402
10020,-0.64928,-14.249
10031,0.73693,-12.925
10043,1.5008,-11.137
10055,0.21272,-12.529
10066,-0.93104,-9.3894
10078,-2.0014,-12.289
10090,-2.7373,-12.999
10102,-1.9054,-13.993
10113,0.88208,-12.344
10125,2.2115,-9.0941
10137,-0.4902,-9.1116
10148,-0.88061,-11.014
10160,-0.72926,-11.732
10172,-2.0443,-13.421
10184,-2.0335,-8.1814
10195,-1.9077,-8.9318
10207,-1.9718,-11.027
10219,-3.4398,-15.09
10230,-3.8389,-9.8531
10242,-3.0624,-10.14
10254,-2.5605,-10.177
10266,-3.1262,-13.171
10277,-1.4427,-12.341
10289,0.23862,-12.922
10301,-0.63663,-10.82
10313,-2.9512,-13.711
10324,-1.0277,-12.372
10336,-1.7297,-12.616
10348,-2.7353,-13.151
10359,-0.037769,-11.873
10371,-1.4508,-11.418
10383,-3.5285,-12.919
10395,-2.3791,-13.773
10406,-3.7967,-10.298
10418,1.6118,-8.3204
10430,1.7772,-10.716
10441,-0.09413,-13.273
10453,-1.0218,-10.184
10465,-2.5909,-11.22
10477,-2.7608,-12.649
10488,-2.8776,-14.141
10500,-3.9843,-10.627
10512,-1.0493,-9.466
10523,1.124,-10.264
10535,0.76438,-10.199
10547,-1.9206,-10.322
10559,-0.88443,-13.606
10570,-2.0221,-11.611
10582,-2.5684,-10.399
10594,-3.5297,-11.314
10605,-3.5016,-11.612
10617,-4.2559,-13.318
10629,-3.6203,-9.8968
10641,-4.5358,-10.603
10652,-3.334,-9.9609
10664,-5.0279,-8.8241
10676,-3.3852,-7.0311
10688,-4.0265,-6.9338
10699,-2.9153,-10.304
10711,-1.4212,-12.511
10723,-5.0335,-13.799
10734,-0.37734,-16.331
10746,-0.40223,-12.298
10758,-0.63487,-11.526
10770,-0.97711,-14.078
10781,-2.6824,-13.415
10793,-2.423,-11.496
10805,-1.3477,-11.994
10816,-1.9234,-14.384
10828,-2.89,-13.029
10840,-0.30934,-10.451
10852,-2.0767,-9.3382
10863,-1.1746,-11.81
10875,-1.8649,-11.76
10887,-3.6169,-12.48
10898,-3.5669,-14.065
10910,0.11711,-15.387
10922,0.33988,-13.598
10934,-1.2445,-10.612
10945,-1.6569,-12.903
10957,-1.075,-11.05
10969,-0.65019,-9.1649
10980,0.027406,-12.1
10992,-0.22668,-10.55
11004,0.37521,-11.604
11016,2.5208,-11.058
11027,1.3278,-10.618
11039,-3.9635,-13.007
11051,-3.3829,-13.09
11063,-2.975,-10.562
11074,-2.8081,-9.5777
11086,-2.6422,-12.339
11098,-2.8775,-12.369
11109,-5.9601,-8.3706
11121,-0.15813,-9.2683
11133,1.5288,-11.958
11145,-0.27224,-12.126
11156,0.44477,-12.281
11168,-1.0631,-12.184
11180,-2.3355,-14.466
11191,-1.4987,-13.35
11203,-2.3242,-13.745
11215,-3.6504,-14.853
11227,0.36138,-12.676
11238,-0.55241,-13.222
11250,-1.1328,-11.708
11262,-1.7579,-9.8273
11273,-3.7135,-10.807
11285,-0.50896,-12.176
11297,-3.4895,-13.01
11309,-1.7936,-13.664
11320,-2.9499,-13.099
11332,-1.4343,-10.299
11344,-1.5109,-12.985
11355,-0.87675,-14.074
11367,-2.8208,-12.414
11379,-1.3697,-11.15
11391,-1.1369,-14.395
11402,-1.5106,-15.632
11414,-0.71406,-13.999
11426,0.22555,-10.885
11438,-3.3488,-10.285
11449,-6.3671,-9.7546
11461,-3.5809,-8.987
11473,-0.43434,-14.576
11484,0.36505,-9.5878
11496,-0.11688,-11.824
11508,-2.2617,-12.687
11520,-0.32508,-12.563
11531,-3.1208,-14.811
11543,-2.0227,-12.686
11555,-0.47705,-11.889
11566,-2.7245,-12.554
11578,-4.2956,-13.08
11590,-5.3974,-14.643
11602,-4.6883,-12.027
11613,-2.0584,-12.604
11625,-3.6782,-13.063
11637,-5.2339,-12.491
11648,-5.4336,-12.556
11660,-4.2789,-13.183
11672,-0.68361,-14.804
11684,-4.9842,-14.93
11695,-2.6498,-12.997
11707,-1.2359,-12.855
11719,-1.7177,-13.173
11730,-1.8402,-14.227
11742,-3.4101,-13.557
11754,-2.63,-12.008
11766,-0.75792,-13.014
11777,-1.1513,-16.85
11789,0.14084,-12.364
11801,-0.33466,-10.17
11813,-1.4225,-11.482
11824,-1.7292,-12.067
11836,-4.1558,-9.2766
11848,-2.5432,-9.4278
11859,-0.79372,-12.388
11871,-0.21198,-14.2
11883,-1.5945,-14.103
11895,-2.6468,-13.36
11906,-1.8615,-12.161
11918,-5.354,-13.577
11930,-5.1768,-14.208
11941,-2.8981,-14.956
11953,-4.1755,-14.51
11965,-2.3243,-12.334
11977,-3.3777,-12.136
11988,-2.1948,-14.941
12000,-3.5009,-11.194
12012,-5.427,-9.9805
12023,-2.8629,-9.8944
12035,-0.027255,-11.558
12047,-1.0217,-12.652
12059,-3.3355,-12.993
12070,-1.8559,-12.665
12082,-0.47688,-11.18
12094,-2.1433,-12.391
12105,-3.8776,-13.37
12117,-2.3576,-14.627
12129,-0.47258,-13.791
12141,-1.8772,-12.506
12152,-3.7359,-10.237
12164,-3.1582,-11.621
12176,-0.79116,-11.994
12188,-1.0647,-11.351
12199,-2.378,-12.363
12211,-2.7553,-11.953
12223,-4.6585,-12.29
12234,-5.5854,-11.951
12246,-1.9462,-11.755
12258,-1.5181,-12.021
12270,-2.0022,-11.869
12281,-3.3954,-10.993
12293,-3.2958,-12.479
12305,-1.976,-10.366
12316,-6.6925,-13.533
12328,-6.5971,-14.018
12340,-7.5994,-13.479
12352,-3.5892,-14.459
12363,-1.6837,-13.094
12375,-1.732,-14.404
12387,-2.4704,-15.366
12398,-3.1421,-13.583
12410,-2.4537,-11.507
12422,-0.047374,-11.811
12434,-1.9295,-14.42
12445,-1.8751,-13.648
12457,-6.3532,-12.72
12469,-4.8425,-11.617
12480,-2.965,-12.604
12492,-2.2108,-15.688
12504,-0.50774,-13.117
12516,-2.0027,-11.484
12527,-4.0237,-10.867
12539,-3.2526,-13.489
12551,-5.287,-15.573
12563,-4.9761,-14.787
12574,-4.1448,-16.115
12586,-3.5113,-12.376
12598,0.023371,-15.382
12609,-3.3291,-14.904
12621,-3.8525,-11.766
12633,-4.7877,-11.57
12645,-3.5145,-12.346
12656,-0.7563,-13.899
12668,-2.6846,-13.97
12680,-4.1009,-13.101
12691,-2.4538,-14.43
12703,-3.4279,-13.236
12715,-6.3106,-13.62
12727,-2.1666,-14.798
12738,-2.0902,-13.556
12750,-0.53462,-14.101
12762,-1.1752,-13.94
12773,-5.5681,-13.069
12785,-5.0195,-13.667
12797,-3.9597,-15.891
12809,-4.172,-16.846
12820,-8.0042,-15.136
12832,-7.9609,-12.625
12844,-7.7851,-14.445
12855,-7.7547,-15.62
12867,-6.5071,-16.279
12879,-9.3255,-12.821
12891,-4.3706,-14.273
12902,-2.904,-11.256
12914,-4.8155,-11.633
12926,-5.6772,-15.38
12938,-4.6652,-12.879
12949,-2.6343,-10.538
12961,-2.932,-11.633
12973,-9.6137,-14.319
12984,-1.1878,-15.202
12996,-1.5347,-11.266
13008,-4.8605,-11.606
13020,-4.0264,-14.764
13031,-4.1538,-13.721
13043,-4.0132,-15.528
13055,-4.3243,-13.287
13066,-5.8379,-13.142
13078,-4.4327,-13.518
13090,-1.9345,-13.33
13102,-1.0362,-12.138
13113,-2.0903,-13.7
13125,-4.6859,-14.167
13137,-4.7199,-13.643
13148,-5.6063,-14.602
13160,-5.8872,-12.239
13172,-4.8679,-11.738
13184,-4.2438,-16.455
13195,-2.8711,-17.605
13207,-1.6413,-14.485
13219,-3.0907,-14.096
13230,-4.5885,-16.441
13242,-5.4769,-13.277
13254,-4.0397,-10.15
13266,-6.2595,-13.424
13277,-3.7488,-13.742
13289,-2.7274,-12.473
13301,-2.9819,-15.928
13313,-1.5123,-12.607
13324,-1.9378,-13.481
13336,-3.6392,-13.131
13348,-6.9516,-13.495
13359,-7.7035,-16.096
13371,-6.1434,-15.379
13383,-3.7937,-16.718
13395,-4.5688,-16.926
13406,-5.6814,-13.789
13418,-5.8531,-12.787
13430,-4.9844,-11.826
13441,-4.6126,-14.041
13453,-8.6024,-14.814
13465,-4.7705,-13.71
13477,-5.6593,-13.493
13488,-1.8779,-15.014
13500,-3.6802,-15.86
13512,-2.506,-14.851
13523,-4.2671,-14.176
13535,-3.0161,-15.204
13547,-1.831,-15.057
13559,-3.788,-13.764
13570,-3.6295,-14.903
13582,-3.4004,-16.543
13594,-4.2061,-15.841
13605,-5.179,-13.555
13617,-2.0891,-12.845
13629,-2.7984,-10.097
13641,-2.901,-9.7719
13652,-6.0383,-12.976
13664,-6.177,-13.682
13676,-3.7001,-12.806
13688,-3.7181,-12.106
13699,-5.2018,-16.471
13711,-5.7918,-17.193
13723,-4.3979,-13.887
13734,-3.7636,-12.888
13746,-4.8661,-13.698
13758,-4.1845,-12.372
13770,-2.326,-12.698
13781,-2.2871,-13.311
13793,-4.7168,-14.768
13805,-4.5474,-12.546
13816,-4.0358,-13.618
13828,-6.4694,-16.605
13840,-5.4899,-17.833
13852,-5.9206,-15.671
13863,-9.6655,-12.805
13875,-5.6505,-13.767
13887,-3.0711,-16.875
13898,-2.4664,-13.948
13910,-8.6124,-16.181
13922,-5.317,-15.557
13934,-4.6224,-13.618
13945,-4.6748,-12.238
13957,-5.1895,-10.463
13969,-7.3037,-12.818
13980,-8.2536,-14.117
13992,-8.5873,-14.274
14004,-4.2904,-11.044
14016,-3.962,-14.668
14027,-6.4181,-15.882
14039,-4.5883,-15.838
14051,-3.7972,-15.896
14063,-5.8693,-13.01
14074,-6.1691,-13.469
14086,-4.74,-15.577
14098,-4.4844,-13.863
14109,-5.296,-14.083
14121,-5.4042,-13.757
14133,-5.3168,-12.728
14145,-7.7904,-14.891
14156,-4.9048,-15.673
14168,-4.4763,-16.321
14180,-6.3101,-16.379
14191,-2.6954,-14.778
14203,-2.4337,-11.738
14215,-3.6051,-12.512
14227,-7.39,-12.42
14238,-8.1769,-11.298
14250,-6.7547,-14.786
14262,-6.4608,-14.265
14273,-8.1418,-15.039
14285,-6.3951,-16.423
14297,-5.9374,-14.532
14309,-5.394,-14.125
14320,-5.9329,-14.867
14332,-2.437,-16.223
14344,-5.1698,-15.24
14355,-4.5195,-12.863
14367,-4.7997,-12.746
14379,-3.6171,-13.787
14391,-3.6007,-14.742
14402,-3.3502,-14.665
14414,-6.918,-13.611
14426,-6.4063,-14.919
14438,-3.9698,-14.748
14449,-5.9189,-13.949
14461,-6.6243,-15.064
14473,-4.399,-15.365
14484,-3.7296,-15.343
14496,-3.5204,-15.307
14508,-4.2677,-16.951
14520,-4.6161,-14.465
14531,-5.515,-16.356
14543,-6.3475,-15.263
14555,-5.0374,-14.974
14566,-6.266,-16.9
14578,-6.9212,-13.785
14590,-7.1613,-14.917
14602,-4.9635,-15.213
14613,-4.3834,-11.856
14625,-3.8696,-10.771
14637,-2.4386,-15.853
14648,-4.6006,-14.999
14660,-4.8977,-12.449
14672,-4.9735,-14.838
14684,-6.5802,-14.561
14695,-6.6085,-14.846
14707,-6.0951,-14.548
14719,-5.8842,-12.668
14730,-5.1221,-14.111
14742,-6.469,-14.782
14754,-4.4465,-15.433
14766,-6.0455,-15.504
14777,-8.1808,-15.664
14789,-9.0721,-19.018
14801,-7.574,-14.895
14813,-7.9122,-14.589
14824,-5.2184,-16.068
14836,-3.189,-16.257
14848,-5.8409,-12.742
14859,-10.209,-14.814
14871,-7.375,-15.657
14883,-8.1415,-14.374
14895,-8.6333,-15.259
14906,-9.8239,-14.574
14918,-5.6286,-14.192
14930,-4.2245,-14.96
14941,-3.9067,-16.726
14953,-5.5571,-14.842
14965,-8.1099,-16.175
14977,-4.7125,-16.529
14988,-3.9392,-13.651
15000,-6.0729,-12.642
15012,-7.3507,-15.331
15023,-4.9723,-17.967
15035,-6.5361,-15.483
15047,-6.535,-15.578
15059,-6.6928,-17.024
15070,-7.1009,-14.948
15082,-5.9895,-16.672
15094,-6.6318,-13.863
15105,-7.3292,-15.35
15117,-4.6816,-15.072
15129,-2.6402,-14.834
15141,-3.8267,-13.408
15152,-5.5758,-12.736
15164,-7.5553,-12.643
15176,-10.138,-12.022
15188,-8.7992,-12.826
15199,-3.6564,-17.248
15211,-6.696,-13.575
15223,-4.6921,-13.835
15234,-5.965,-13.889
15246,-7.3018,-12.929
15258,-8.278,-14.535
15270,-9.039,-18.299
15281,-7.8192,-14.536
15293,-6.2097,-17.659
15305,-6.1448,-14.083
15316,-6.9055,-15.276
15328,-9.4586,-14.123
15340,-8.0198,-12.595
15352,-9.0567,-16.302
15363,-5.9054,-18.389
15375,-7.8241,-17.187
15387,-8.6355,-15.998
15398,-9.1162,-16.711
15410,-7.4707,-19.85
15422,-7.0256,-17.614
15434,-6.0527,-16.211
15445,-7.1408,-13.755
15457,-7.2287,-15.043
15469,-6.8665,-16.586
15480,-7.0997,-17.897
15492,-7.1523,-14.998
15504,-6.4606,-14.846
15516,-7.3112,-16.428
15527,-5.5822,-17.282
15539,-5.7377,-14.871
15551,-8.0381,-14.536
15563,-8.7114,-16.243
15574,-10.122,-15.942
15586,-10.152,-16.596
15598,-9.3956,-15.105
15609,-10.786,-12.994
15621,-7.1712,-11.261
15633,-7.5389,-15.111
15645,-7.4369,-17.12
15656,-6.591,-18.683
15668,-8.8725,-14.842
15680,-8.411,-14.749
15691,-8.493,-14.359
15703,-10.126,-14.34
15715,-9.4913,-18.591
15727,-6.8685,-20.737
15738,-6.1494,-19.432
15750,-6.4114,-18.637
15762,-6.3947,-17.992
15773,-6.4919,-14.334
15785,-8.351,-13.48
15797,-9.3031,-14.858
15809,-6.9849,-16.727
15820,-6.456,-16.521
15832,-12.375,-13.149
15844,-11.958,-11.829
15855,-12.733,-16.123
15867,-9.8876,-18.643
15879,-7.843,-16.562
15891,-7.2155,-16.334
15902,-6.5322,-17.066
15914,-7.2912,-15.559
15926,-10.219,-15.936
15938,-9.326,-20.257
15949,-7.5215,-18.404
15961,-5.9284,-14.714
15973,-5.1266,-13.274
15984,-9.195,-16.413
15996,-8.5909,-14.156
16008,-10.933,-14.111
16020,-9.616,-19.05
16031,-9.4534,-18.379
16043,-8.7652,-17.628
16055,-8.9666,-17.22
16066,-10.584,-15.267
16078,-8.8625,-13.223
16090,-6.7036,-15.371
16102,-8.1979,-15.578
16113,-8.9878,-16.043
16125,-6.9376,-15.562
16137,-7.8197,-15.43
16148,-6.8254,-16.137
16160,-8.0847,-16.583
16172,-9.9158,-20.464
16184,-8.441,-17.908
16195,-6.776,-15.852
16207,-8.5272,-16.104
16219,-8.8944,-15.735
16230,-7.6812,-16.57
16242,-7.3991,-14.655
16254,-10.272,-14.788
16266,-10.155,-16.948
16277,-9.1083,-17.198
16289,-9.1455,-15.276
16301,-7.9479,-13.433
16313,-10.656,-14.592
16324,-11.322,-16.882
16336,-10.7,-18.342
16348,-10.824,-18.253
16359,-8.814,-16.02
16371,-9.3346,-17.825
16383,-9.2685,-14.373
16395,-9.0329,-14.478
16406,-10.062,-16.668
16418,-7.6062,-16.848
16430,-7.6301,-15.788
16441,-6.9761,-15.013
16453,-8.6022,-14.711
16465,-9.5731,-15.23
16477,-9.2945,-14.09
16488,-10.797,-11.456
16500,-10.356,-12.917
16512,-9.4527,-12.57
16523,-7.8929,-13.761
16535,-12.945,-16.802
16547,-11.395,-17.275
16559,-9.3461,-17.934
16570,-11.63,-17.074
16582,-8.6826,-17.644
16594,-5.915,-17.091
16605,-6.6942,-15.03
16617,-8.3467,-16.481
16629,-6.1394,-15.321
16641,-7.3151,-17.536
16652,-6.8168,-16.419
16664,-7.9043,-17.066
16676,-11.018,-14.811
16688,-11.725,-14.11
16699,-9.6706,-15.087
16711,-9.8261,-18.1
16723,-10.13,-15.222
16734,-7.7965,-17.419
16746,-9.3721,-18.317
16758,-10.304,-17.871
16770,-9.4318,-19.603
16781,-12.008,-20.321
16793,-10.236,-18.295
16805,-8.3759,-16.826
16816,-9.5344,-12.911
16828,-9.4733,-14.199
16840,-10.735,-17.002
16852,-10.812,-18.259
16863,-11.167,-20.787
16875,-9.2482,-20.193
16887,-12.298,-18.574
16898,-10.596,-16.589
16910,-9.3231,-15.324
16922,-9.9794,-15.132
16934,-7.562,-16.954
16945,-8.328,-18.243
16957,-11.856,-15.093
16969,-12.063,-13.905
16980,-10.537,-16.974
16992,-11.646,-15.887
17004,-9.1271,-14.133
17016,-8.0886,-16.86
17027,-12.52,-17.57
17039,-14.608,-15.395
17051,-12.81,-17.268
17063,-11.381,-17.449
17074,-10.218,-16.767
17086,-9.7606,-19.149
17098,-9.8677,-19.348
17109,-8.9882,-17.384
17121,-8.2962,-14.744
17133,-11.273,-19.501
17145,-12.109,-17.174
17156,-15.173,-15.802
17168,-10.948,-15.717
17180,-11.868,-17.046
17191,-13.004,-21.07
17203,-12.451,-15.898
17215,-12.32,-14.854
17227,-10.441,-18.768
17238,-8.7258,-17.859
17250,-8.7595,-17.157
17262,-9.7342,-15.963
17273,-7.5598,-15.091
17285,-8.6149,-13.531
17297,-11.185,-16.808
17309,-11.058,-16.913
17320,-13.328,-18.544
17332,-12.548,-18.748
17344,-11.374,-16.599
17355,-12.048,-17.803
17367,-12.864,-17.982
17379,-11.458,-19.001
17391,-11.346,-19.222
17402,-7.9029,-16.22
17414,-9.1059,-17.109
17426,-10.272,-15.875
17438,-12.026,-16.913
17449,-13.912,-15.21
17461,-10.242,-18.793
17473,-11.957,-12.323
17484,-13.907,-13.142
17496,-13.492,-15.819
17508,-13.73,-16.119
17520,-12.078,-16.374
17531,-12.276,-16.174
17543,-8.6889,-15.646
17555,-9.1096,-18.421
17566,-9.398,-17.91
17578,-10.481,-17.861
17590,-11.819,-15.985
17602,-11.674,-17.636
17613,-8.5479,-15.567
17625,-8.5762,-14.966
17637,-12.243,-15.352
17648,-12.328,-15.362
17660,-12.423,-18.383
17672,-12.465,-18.179
17684,-12.038,-14.756
17695,-12.426,-15.145
17707,-12.297,-16.746
17719,-11.41,-15.95
17730,-9.7167,-14.825
17742,-11.39,-15.692
17754,-13.286,-18.132
17766,-11.387,-18.337
17777,-10.008,-18.45
17789,-12.88,-19.221
17801,-9.9051,-19.282
17813,-10.548,-16.151
17824,-13.436,-16.038
17836,-11.73,-15.206
17848,-12.1,-17.01
17859,-12.42,-16.458
17871,-15.035,-16.845
17883,-9.9602,-19.681
17895,-9.111,-21.169
17906,-11.212,-20.482
17918,-11.721,-15.638
17930,-12.47,-15.305
17941,-11.816,-16.345
17953,-9.1069,-15.573
17965,-9.5972,-16.125
17977,-12.668,-16.033
17988,-13.885,-13.588
18000,-11.863,-13.628
18012,-9.8152,-15.934
18023,-10.616,-16.785
18035,-11.891,-17.784
18047,-10.648,-17.075
18059,-13.855,-21.51
18070,-11.412,-19.503
18082,-12.226,-18.432
18094,-10.592,-19.063
18105,-12.26,-19.952
18117,-11.149,-19.498
18129,-11.674,-15.949
18141,-11.669,-16.062
18152,-13.294,-16.863
18164,-12.503,-19.099
18176,-10.304,-20.38
18188,-12.587,-19.527
18199,-15.516,-17.237
18211,-13.83,-18.094
18223,-13.316,-17.572
18234,-14.685,-18.429
18246,-13.427,-16.11
18258,-12.75,-16.03
18270,-11.17,-16.268
18281,-12.524,-17.383
18293,-11.891,-16.871
18305,-10.329,-16.526
18316,-10.344,-16.961
18328,-10.153,-19.126
18340,-10.595,-17.18
18352,-10.42,-18.727
18363,-11.649,-17.797
18375,-12.682,-14.87
18387,-13.917,-16.243
18398,-11.877,-17.464
18410,-11.853,-17.506
18422,-13.737,-17.136
18434,-15.304,-17.442
18445,-14.355,-19.56
18457,-12.345,-19.428
18469,-11.745,-17.793
18480,-13.583,-17.674
18492,-12.48,-16.55
18504,-15.449,-15.092
18516,-12.739,-18.319
18527,-11.192,-20.488
18539,-13.117,-18.762
18551,-13.529,-19.538
18563,-13.308,-17.588
18574,-12.49,-17.522
18586,-10.779,-17.171
18598,-11.006,-13.114
18609,-10.436,-15.092
18621,-11.948,-18.314
18633,-10.795,-15.338
18645,-12.502,-13.647
18656,-12.628,-16.123
18668,-12.587,-18.557
18680,-13.588,-20.153
18691,-11.618,-18.085
18703,-12.574,-15.059
18715,-14.018,-14.755
18727,-12.57,-15.001
18738,-11.125,-17.389
18750,-8.6766,-18.58
18762,-11.422,-17.338
18773,-12.545,-17.56
18785,-10.523,-16.587
18797,-11.161,-16.006
18809,-10.071,-17.816
18820,-11.017,-16.749
18832,-13.682,-14.462
18844,-12.105,-15.988
18855,-12.47,-16.895
18867,-10.58,-16.883
18879,-13.078,-16.842
18891,-15.064,-17.685
18902,-14.052,-17.824
18914,-15.444,-16.085
18926,-12.794,-16.921
18938,-11.451,-22.117
18949,-13.415,-18.41
18961,-15.414,-17.188
18973,-14.607,-16.688
18984,-13.548,-18.206
18996,-13.171,-17.764
19008,-13.507,-16.996
19020,-14.36,-16.99
19031,-15.359,-19.466
19043,-13.744,-17.877
19055,-15.987,-16.909
19066,-12.415,-14.319
19078,-10.069,-16.103
19090,-10.281,-19.235
19102,-12.622,-21.048
19113,-14.414,-20.597
19125,-14.195,-19.184
19137,-12.178,-15.22
19148,-10.991,-14.724
19160,-10.731,-16.022
19172,-12.449,-16.729
19184,-11.872,-16.55
19195,-12.839,-18.187
19207,-16.339,-21.291
19219,-13.186,-20.116
19230,-11.593,-18.368
19242,-13.249,-14.912
19254,-12.508,-14.384
19266,-11.366,-15.359
19277,-14.4,-16.92
19289,-12.621,-16.882
19301,-12.356,-20.584
19313,-12.328,-19.855
19324,-15.3,-19.014
19336,-13.804,-16.901
19348,-11.146,-20.627
19359,-12.69,-16.451
19371,-13.616,-16.659
19383,-11.144,-18.156
19395,-10.469,-17.715
19406,-11.712,-15.85
19418,-14.924,-16.699
19430,-15.046,-17.871
19441,-14.442,-17.835
19453,-14.993,-17.277
19465,-15.839,-18.106
19477,-13.582,-17.571
19488,-9.8633,-18.267
19500,-10.664,-20.307
19512,-14.697,-18.256
19523,-13.184,-17.047
19535,-12.186,-16.306
19547,-12.046,-16.497
19559,-10.327,-15.338
19570,-10.413,-14.279
19582,-11.825,-15.37
19594,-12.489,-17.879
19605,-12.347,-17.172
19617,-13.497,-16.427
19629,-14.643,-19.981
19641,-16.719,-16.599
19652,-13.461,-15.996
19664,-10.438,-19.479
19676,-9.5149,-17.839
19688,-13.213,-17.114
19699,-14.301,-16.466
19711,-13.668,-16.942
19723,-12.133,-17.142
19734,-12.557,-18.297
19746,-13.281,-15.473
19758,-18.088,-15.697
19770,-14.508,-17.876
19781,-14.382,-21.398
19793,-12.963,-20.483
19805,-11.94,-18.291
19816,-12.477,-17.354
19828,-12.54,-18.959
19840,-11.968,-18.161
19852,-10.679,-18.114
19863,-13.212,-19.629
19875,-17.662,-20.142
19887,-17.006,-18.689
19898,-17.56,-16.14
19910,-14.969,-16.846
19922,-12.103,-18.244
19934,-12.48,-18.799
19945,-11.749,-16.937
19957,-11.652,-18.344
19969,-12.321,-17.241
19980,-12.082,-19.238
19992,-13.493,-14.867
20004,-13.39,-15.051
20016,-12.313,-20.12
20027,-13.497,-20.318
20039,-14.821,-17.557
20051,-15.631,-15.879
20063,-12.055,-17.79
20074,-14.294,-19.736
20086,-13.545,-18.889
20098,-14.921,-17.345
20109,-14.415,-17.308
20121,-16.916,-21.059
20133,-19.65,-18.874
20145,-18.083,-18.25
20156,-13.911,-18.463
20168,-10.854,-20.12
20180,-12.755,-19.341
20191,-13.93,-19.954
20203,-12.923,-19.396
20215,-14.946,-17.11
20227,-13.52,-17.011
20238,-11.249,-15.828
20250,-12.1,-20.91
20262,-12.098,-19.057
20273,-12.347,-15.509
20285,-15.419,-17.335
20297,-17.287,-19.062
20309,-14.34,-18.397
20320,-13.707,-17.079
20332,-13.8,-18.933
20344,-14.998,-20.145
20355,-14.043,-17.121
20367,-12.575,-15.187
20379,-13.814,-19.303
20391,-13.027,-16.944
20402,-13.759,-16.831
20414,-15.257,-17.823
20426,-12.745,-16.89
20438,-12.98,-20.411
20449,-13.593,-19.49
20461,-14.149,-16.52
20473,-15.342,-17.231
20484,-15.375,-18.511
20496,-14.654,-16.214
20508,-14.962,-21.161
20520,-15.441,-17.961
20531,-19.904,-17.701
20543,-18.279,-20.19
20555,-19.556,-18.61
20566,-18.689,-19.703
20578,-16.414,-17.485
20590,-14.631,-18.779
20602,-12.599,-19.175
20613,-13.894,-18.756
20625,-16.024,-18.109
20637,-16.015,-17.548
20648,-14.573,-18.097
20660,-13.859,-20.757
20672,-14.398,-19.739
20684,-14.635,-18.712
20695,-17.282,-20.607
20707,-15.609,-20.976
20719,-15.434,-19.785
20730,-16.727,-20.392
20742,-17.615,-17.096
20754,-15.247,-19.263
20766,-15.95,-21.135
20777,-17.793,-21.924
20789,-16.449,-18.187
20801,-17.875,-17.058
20813,-15.652,-16.601
20824,-13.995,-16.305
20836,-13.116,-16.038
20848,-13.966,-16.339
20859,-17.837,-17.859
20871,-14.575,-18.406
20883,-14.33,-23.471
20895,-15.364,-21.818
20906,-16.953,-15.893
20918,-16.105,-14.687
20930,-13.896,-15.008
20941,-14.715,-16.43
20953,-14.649,-19.992
20965,-17.853,-16.854
20977,-13.055,-17.776
20988,-14.554,-22.129
21000,-14.221,-16.15
21012,-15.681,-16.952
21023,-17.26,-16.257
21035,-15.126,-14.974
21047,-14.596,-16.701
21059,-12.38,-18.607
21070,-13.418,-16.884
21082,-12.192,-17.245
21094,-11.213,-17.528
21105,-13.969,-19.018
21117,-15.561,-17.656
21129,-13.366,-20.866
21141,-13.34,-18.926
21152,-16.169,-19.667
21164,-17.168,-20.523
21176,-16.544,-22.735
21188,-14.857,-21.664
21199,-13.013,-20.027
21211,-15.866,-18.621
21223,-18.874,-22.686
21234,-20.812,-19.097
21246,-17.975,-18.939
21258,-17.022,-18.368
21270,-15.92,-16.976
21281,-17.692,-17.554
21293,-18.776,-18.89
21305,-18.548,-20.027
21316,-18.477,-18.197
21328,-16.701,-14.988
21340,-13.836,-19.09
21352,-17.933,-21.71
21363,-18.624,-21.623
21375,-14.862,-18.433
21387,-12.257,-17.18
21398,-15.384,-20.012
21410,-16.218,-20.972
21422,-15.852,-18.885
21434,-14.557,-17.256
21445,-13.852,-17.524
21457,-15.361,-18.755
21469,-17.335,-19.895
21480,-19.112,-18.583
21492,-19.717,-18.215
21504,-17.792,-19.96
21516,-12.926,-18.512
21527,-13.417,-18.232
21539,-14.787,-20.581
21551,-17.464,-20.66
21563,-17.001,-21.467
21574,-17.899,-20.448
21586,-17.59,-19.104
21598,-18.029,-19.403
21609,-16.502,-22.683
21621,-16.584,-21.312
21633,-16.716,-19.633
21645,-13.51,-21.683
21656,-14.987,-18.58
21668,-17.383,-16.963
21680,-18.176,-17.349
21691,-16.109,-19.892
21703,-14.262,-21.344
21715,-15.668,-20.1
21727,-17.276,-21.345
21738,-15.248,-22.071
21750,-14.713,-20.315
21762,-16.629,-17.565
21773,-18.135,-17.961
21785,-13.474,-17.289
21797,-13.327,-18.386
21809,-15.051,-19.52
21820,-15.059,-17.934
21832,-16.725,-18.975
21844,-15.741,-21.9
21855,-15.807,-18.623
21867,-17.923,-17.616
21879,-15.073,-16.65
21891,-16.15,-17.101
21902,-17.291,-16.493
21914,-13.936,-16.486
21926,-13.631,-15.671
21938,-15.463,-18.107
21949,-15.443,-19.769
21961,-17.399,-18.144
21973,-14.453,-18.027
21984,-14.351,-17.332
21996,-15.403,-14.565
22008,-15.591,-15.072
22020,-15.527,-18.435
22031,-16.277,-19.163
22043,-17.767,-19.08
22055,-18.301,-20
22066,-17.601,-20.963
22078,-14.651,-20.755
22090,-15.361,-20.166
22102,-16.799,-20.936
22113,-14.702,-17.989
22125,-15.501,-19.19
22137,-16.737,-19.925
22148,-16.265,-18.391
22160,-17.602,-18.822
22172,-16.636,-20.126
22184,-18.362,-21.15
22195,-16.074,-19.181
22207,-16.029,-18.536
22219,-14.73,-19.804
22230,-11.201,-20.854
22242,-11.694,-20.823
22254,-14.254,-19.622
22266,-17.909,-21.256
22277,-18.105,-18.31
22289,-16.115,-17.795
22301,-17.98,-17.922
22313,-17.241,-17.934
22324,-17.017,-20.803
22336,-18.48,-22.899
22348,-17.463,-22.873
22359,-14.954,-22.694
22371,-15.771,-20.016
22383,-15.602,-20.124
22395,-13.01,-22.193
22406,-13.964,-22.127
22418,-18.197,-21.074
22430,-17.4,-20.721
22441,-17.159,-21.359
22453,-16.211,-21.742
22465,-14.73,-21.815
22477,-13.484,-22.385
22488,-15.428,-26.594
22500,-15.829,-21.83
22512,-15.845,-20.369
22523,-16.779,-19.844
22535,-20.047,-21.196
22547,-18.488,-21.573
22559,-16.06,-19.679
22570,-12.731,-19.34
22582,-12.27,-20
22594,-13.011,-19.198
22605,-11.993,-19.342
22617,-8.767,-18.862
22629,-8.4462,-20.748
22641,-13.903,-24.483
22652,-17.551,-20.808
22664,-12.281,-19.616
22676,-11.625,-20.84
22688,-12.954,-18.271
22699,-13.418,-18.171
22711,-15.141,-19.282
22723,-16.641,-24.568
22734,-14.496,-24.318
22746,-13.965,-25.741
22758,-17.315,-22.977
22770,-11.912,-20.766
22781,-13.688,-17.98
22793,-15.709,-18.498
22805,-12.457,-18.969
22816,-11.941,-21.301
22828,-9.9564,-21.238
22840,-10.279,-19.658
22852,-14.014,-19.453
22863,-16.434,-21.347
22875,-16.31,-22.29
22887,-16.755,-21.196
22898,-17.626,-23.457
22910,-18.389,-19.844
22922,-18.759,-18.433
22934,-13.165,-18.334
22945,-14.974,-19.385
22957,-15.262,-19.815
22969,-15.268,-19.924
22980,-15.691,-20.025
22992,-17.355,-19.397
23004,-16.356,-19.58
23016,-15.95,-18.751
23027,-16.041,-20.842
23039,-17.906,-22.401
23051,-14.697,-23.596
23063,-14.262,-22.623
23074,-16.555,-20.365
23086,-18.416,-23.325
23098,-16.812,-20.416
23109,-17.676,-24.201
23121,-18.822,-22.832
23133,-17.772,-19.441
23145,-15.534,-19.265
23156,-15.332,-19.343
23168,-17.492,-20.289
23180,-18.571,-22.475
23191,-17.874,-23.98
23203,-19.282,-20.179
23215,-20.358,-19.409
23227,-16.996,-19.879
23238,-16.389,-19.138
23250,-17.441,-20.738
23262,-15.905,-17.944
23273,-12.696,-16.384
23285,-15.55,-18.644
23297,-16.999,-21.043
23309,-17.248,-22.308
23320,-17.175,-25.319
23332,-19.145,-24.37
23344,-18.306,-21.185
23355,-18.26,-18.254
23367,-18.73,-17.106
23379,-19.251,-18.839
23391,-16.793,-20.667
23402,-15.414,-22.797
23414,-16.121,-21.995
23426,-17.474,-20.885
23438,-17.453,-22.116
23449,-18.304,-22.332
23461,-16.936,-22.018
23473,-15.98,-19.598
23484,-15.907,-19.029
23496,-16.084,-20.067
23508,-19.311,-23.579
23520,-16.251,-23.373
23531,-15.513,-23.457
23543,-15.585,-22.069
23555,-17.648,-20.248
23566,-14.1,-20.052
23578,-11.77,-16.933
23590,-15.24,-18.328
23602,-17.322,-22.695
23613,-18.936,-20.197
23625,-15.717,-17.564
23637,-14.217,-18.497
23648,-15.209,-24.488
23660,-16.393,-20.54
23672,-15.006,-20.172
23684,-17.383,-21.477
23695,-15.139,-20.24
23707,-13.623,-20.879
23719,-15.066,-21.251
23730,-16.204,-20.205
23742,-16.508,-20.76
23754,-15.129,-22.632
23766,-14.219,-19.48
23777,-13.38,-20.179
23789,-12.303,-18.451
23801,-11.152,-18.797
23813,-13.366,-19.568
23824,-13.872,-23.905
23836,-10.89,-22.029
23848,-12.061,-19.417
23859,-13.832,-19.708
23871,-12.851,-20.622
23883,-12.343,-20.237
23895,-12.2,-20.52
23906,-9.9187,-21.955
23918,-10.534,-22.089
23930,-17.684,-22.228
23941,-13.844,-22.822
23953,-15.908,-20.72
23965,-12.46,-21.668
23977,-10.745,-22.286
23988,-9.9805,-22.746
